Version 8.2.0
Id
Min label:-50
Max label:50
bits:22
lda:0
1 ngram:2
0 skip:
options:
Checksum: 502636025
:0
0:-0.00314021
1:-0.000628043
2:-0.00188413
5:-0.000628043
9:-0.000628043
10:-0.00125609
14:-0.00188413
15:-0.0100487
16:-0.000628043
17:-0.00251217
19:-0.00251217
23:-0.00376826
24:-0.00753651
25:-0.000628043
26:-0.000628043
28:-0.00125609
29:0.00314021
30:-0.000628043
31:-0.000628043
32:-0.000628043
36:-0.00125609
