Version 8.1.1
Min label:-50.000000
Max label:50.000000
bits:23
lda:0
1 ngram: 2
0 skip:
options:
Checksum: -1634067564
:0
0:-0.000732
1:-0.000251
3:-0.000583
4:-0.000104
5:0.000562
6:-0.000228
7:-0.000141
8:-0.000644
9:-0.000373
10:-0.000972
11:0.000699
12:-0.002118
14:-0.008000
15:0.000726
16:-0.008281
17:-0.001069
18:-0.001548
19:-0.001003
20:-0.002305
21:-0.000327
22:-0.001016
23:-0.000281
24:-0.014406
25:0.000419
26:-0.000033
27:0.000266
28:-0.000314
29:-0.000156
30:-0.000893
31:-0.000246
32:-0.001194
34:-0.000091
35:-0.000280
